{"type":"LSTMTimeStep","options":{"inputSize":4,"hiddenLayers":[8,8],"outputSize":4,"decayRate":0.999,"smoothEps":1e-8,"regc":0.000001,"clipval":5},"hiddenLayers":[{"inputMatrix":{"rows":8,"columns":4,"weights":{"0":-0.1812378168106079,"1":-0.11423005908727646,"2":-0.22254642844200134,"3":-0.10459510236978531,"4":0.3013538122177124,"5":0.20501625537872314,"6":0.23342862725257874,"7":0.17001326382160187,"8":0.07779813557863235,"9":0.10784028470516205,"10":0.19759613275527954,"11":0.17085014283657074,"12":0.02333793416619301,"13":0.06065325066447258,"14":0.0801430493593216,"15":0.02781902812421322,"16":0.02035454660654068,"17":0.09039714187383652,"18":0.07512815296649933,"19":0.00684255501255393,"20":0.2731800675392151,"21":0.23526272177696228,"22":0.2076408863067627,"23":0.2418362945318222,"24":-0.2798619568347931,"25":-0.23470313847064972,"26":-0.35471856594085693,"27":-0.26378509402275085,"28":-0.07766380906105042,"29":-0.16436754167079926,"30":-0.21707788109779358,"31":-0.12372826039791107}},"inputHidden":{"rows":8,"columns":8,"weights":{"0":0.10642025619745255,"1":-0.09932313859462738,"2":0.010667855851352215,"3":0.03491934761404991,"4":0.18407556414604187,"5":-0.09419027715921402,"6":-0.23611322045326233,"7":0.1621495932340622,"8":-0.09298329055309296,"9":0.10416083037853241,"10":-0.0561416931450367,"11":-0.029609620571136475,"12":-0.17890650033950806,"13":-0.029218776151537895,"14":0.15668760240077972,"15":-0.08433825522661209,"16":-0.12867489457130432,"17":-0.014155775308609009,"18":0.02454257942736149,"19":-0.09722762554883957,"20":-0.14349856972694397,"21":-0.03389627858996391,"22":0.13470344245433807,"23":-0.21773019433021545,"24":-0.1733270287513733,"25":0.0612521767616272,"26":-0.006788427010178566,"27":-0.012651939876377583,"28":-0.20117466151714325,"29":0.002898167120292783,"30":0.21663956344127655,"31":-0.16392016410827637,"32":0.26509585976600647,"33":0.19099266827106476,"34":0.20096001029014587,"35":-0.08792955428361893,"36":0.2403457760810852,"37":0.16159404814243317,"38":-0.13599467277526855,"39":0.24935774505138397,"40":-0.16798314452171326,"41":-0.040760450065135956,"42":0.06560266762971878,"43":0.06507158279418945,"44":-0.10560835897922516,"45":0.0502227284014225,"46":0.20439942181110382,"47":-0.11659450083971024,"48":0.14244094491004944,"49":-0.19417034089565277,"50":-0.1626385599374771,"51":0.19944456219673157,"52":0.19842639565467834,"53":-0.24893663823604584,"54":-0.15269418060779572,"55":0.0901363268494606,"56":0.14136171340942383,"57":-0.06533027440309525,"58":0.013342540711164474,"59":-0.030296245589852333,"60":0.13796791434288025,"61":-0.02817448414862156,"62":-0.10466965287923813,"63":0.10498771071434021}},"inputBias":{"rows":8,"columns":1,"weights":{"0":-0.20131179690361023,"1":0.5600672364234924,"2":0.5346630811691284,"3":0.5682841539382935,"4":-0.24377594888210297,"5":0.55338454246521,"6":0.08240992575883865,"7":-0.1407884955406189}},"forgetMatrix":{"rows":8,"columns":4,"weights":{"0":-0.11215544492006302,"1":-0.16793380677700043,"2":-0.10167454183101654,"3":-0.12585587799549103,"4":0.0571175180375576,"5":0.05410158634185791,"6":0.15448984503746033,"7":0.1818130761384964,"8":0.03265242651104927,"9":0.016671985387802124,"10":0.0623660683631897,"11":-0.017414627596735954,"12":0.02577192522585392,"13":0.049552954733371735,"14":-0.05756745487451553,"15":0.024346226826310158,"16":-0.15407699346542358,"17":-0.10890213400125504,"18":-0.1318713128566742,"19":-0.13055263459682465,"20":0.14197084307670593,"21":0.07122864574193954,"22":0.10649943351745605,"23":0.061576176434755325,"24":-0.23309554159641266,"25":-0.2779580354690552,"26":-0.23316654562950134,"27":-0.16583757102489471,"28":-0.16827832162380219,"29":-0.14599433541297913,"30":-0.10293428599834442,"31":-0.09834989160299301}},"forgetHidden":{"rows":8,"columns":8,"weights":{"0":0.09327898919582367,"1":-0.1711796075105667,"2":-0.15970173478126526,"3":0.09994998574256897,"4":0.13716451823711395,"5":-0.10460449010133743,"6":-0.08008451759815216,"7":0.09222213923931122,"8":-0.1350698322057724,"9":-0.06073087081313133,"10":-0.037805959582328796,"11":0.04648526385426521,"12":-0.1789756417274475,"13":-0.06467831879854202,"14":0.11079717427492142,"15":-0.09849460422992706,"16":-0.22504980862140656,"17":-0.05793449655175209,"18":-0.019603708758950233,"19":0.00317858112975955,"20":-0.11734484881162643,"21":-0.0009259567596018314,"22":0.18404100835323334,"23":-0.1383407562971115,"24":-0.12733912467956543,"25":-0.07381571829319,"26":-0.044114772230386734,"27":0.07562388479709625,"28":-0.2236972153186798,"29":0.050035130232572556,"30":0.1679626852273941,"31":-0.22509057819843292,"32":0.09099982678890228,"33":0.010168441571295261,"34":0.008877464570105076,"35":0.08037294447422028,"36":0.13827486336231232,"37":-0.1251021772623062,"38":-0.13511662185192108,"39":0.1964494287967682,"40":-0.14694130420684814,"41":0.03141295537352562,"42":0.04242626950144768,"43":-0.038325078785419464,"44":-0.1381012201309204,"45":0.04959286004304886,"46":0.09460505098104477,"47":-0.11008884012699127,"48":0.09516415745019913,"49":-0.14555224776268005,"50":-0.08657876402139664,"51":0.08429957926273346,"52":0.15255318582057953,"53":-0.10457990318536758,"54":-0.06279181689023972,"55":0.08366737514734268,"56":0.18769070506095886,"57":-0.04448430612683296,"58":-0.024968337267637253,"59":0.15650540590286255,"60":0.1585802435874939,"61":-0.16866490244865417,"62":-0.10558709502220154,"63":0.07245612889528275}},"forgetBias":{"rows":8,"columns":1,"weights":{"0":0,"1":0,"2":0,"3":0,"4":0,"5":0,"6":0,"7":0}},"outputMatrix":{"rows":8,"columns":4,"weights":{"0":-0.2737191617488861,"1":-0.2884695827960968,"2":-0.23497004806995392,"3":-0.2608465850353241,"4":0.1788637936115265,"5":0.2687128186225891,"6":0.23048236966133118,"7":0.1308976113796234,"8":0.03767220675945282,"9":0.1398680955171585,"10":0.02408762089908123,"11":0.09672576934099197,"12":-0.014072940684854984,"13":0.03362859785556793,"14":0.03429128974676132,"15":-0.010532638989388943,"16":0.05878767743706703,"17":0.043101705610752106,"18":0.01630096510052681,"19":-0.08397674560546875,"20":0.09532511234283447,"21":0.11858882755041122,"22":0.22562852501869202,"23":0.21194718778133392,"24":-0.290641188621521,"25":-0.21520817279815674,"26":-0.31282809376716614,"27":-0.3264141380786896,"28":-0.1355351060628891,"29":-0.22163431346416473,"30":-0.24362482130527496,"31":-0.2581322491168976}},"outputHidden":{"rows":8,"columns":8,"weights":{"0":0.10258506238460541,"1":-0.00839886162430048,"2":0.01672380045056343,"3":-0.030416186898946762,"4":0.22058658301830292,"5":-0.08231043815612793,"6":-0.11200256645679474,"7":0.1242644265294075,"8":-0.09420793503522873,"9":0.08680907636880875,"10":0.023774461820721626,"11":0.05784333124756813,"12":-0.20352566242218018,"13":0.07847659289836884,"14":0.15748001635074615,"15":-0.21593892574310303,"16":-0.164699986577034,"17":-0.007677215151488781,"18":0.04839088395237923,"19":0.0013955750036984682,"20":-0.19789496064186096,"21":0.03418617695569992,"22":0.17679624259471893,"23":-0.14734047651290894,"24":-0.25641998648643494,"25":-0.04342767596244812,"26":0.026196377351880074,"27":0.006963621824979782,"28":-0.222205251455307,"29":0.04727526009082794,"30":0.18660055100917816,"31":-0.1660260707139969,"32":0.24462935328483582,"33":0.16735513508319855,"34":0.14323551952838898,"35":-0.07365099340677261,"36":0.16505010426044464,"37":0.01957879029214382,"38":-0.21806421875953674,"39":0.1389048993587494,"40":-0.23985235393047333,"41":-0.035394154489040375,"42":-0.016997134312987328,"43":-0.01846097782254219,"44":-0.09843379259109497,"45":-0.014907491393387318,"46":0.2112358808517456,"47":-0.2097424864768982,"48":0.18511663377285004,"49":-0.12122118473052979,"50":-0.1990640014410019,"51":0.20143984258174896,"52":0.10615876317024231,"53":-0.18164779245853424,"54":-0.1070571020245552,"55":0.12643538415431976,"56":0.14079563319683075,"57":-0.05744533985853195,"58":-0.051405295729637146,"59":0.008170080371201038,"60":0.2220311313867569,"61":-0.01283971220254898,"62":-0.18081629276275635,"63":0.15593136847019196}},"outputBias":{"rows":8,"columns":1,"weights":{"0":-0.2070622593164444,"1":0.6095616221427917,"2":0.5846693515777588,"3":0.6085348725318909,"4":-0.2477760761976242,"5":0.6121854782104492,"6":0.08069699257612228,"7":-0.14746832847595215}},"cellActivationMatrix":{"rows":8,"columns":4,"weights":{"0":0.07608494162559509,"1":0.09741806238889694,"2":0.11988639831542969,"3":0.0033112256787717342,"4":0.29038119316101074,"5":0.3403913676738739,"6":0.3450992703437805,"7":0.35080331563949585,"8":0.27511438727378845,"9":0.32558533549308777,"10":0.2929425835609436,"11":0.33995261788368225,"12":-0.3767518103122711,"13":-0.28619006276130676,"14":-0.285087913274765,"15":-0.3019414246082306,"16":0.21167899668216705,"17":0.17295537889003754,"18":0.09288446605205536,"19":0.17163805663585663,"20":0.3668364882469177,"21":0.30650201439857483,"22":0.37903153896331787,"23":0.2598792016506195,"24":-0.09887176007032394,"25":-0.11350858956575394,"26":-0.06219370290637016,"27":-0.056358810514211655,"28":0.08547358959913254,"29":0.03875638544559479,"30":0.16586853563785553,"31":0.16508394479751587}},"cellActivationHidden":{"rows":8,"columns":8,"weights":{"0":-0.1447225958108902,"1":0.28175365924835205,"2":0.2755865454673767,"3":-0.32836538553237915,"4":-0.21286487579345703,"5":0.1390591263771057,"6":0.231583371758461,"7":-0.26414820551872253,"8":-0.06686139106750488,"9":0.22071735560894012,"10":0.18590609729290009,"11":-0.17757640779018402,"12":-0.11495811492204666,"13":0.27353158593177795,"14":0.12979552149772644,"15":-0.12016303092241287,"16":-0.0014889303129166365,"17":0.16262345016002655,"18":0.12053210288286209,"19":-0.20701266825199127,"20":-0.17784738540649414,"21":0.28539085388183594,"22":0.10014687478542328,"23":-0.03718220442533493,"24":0.13673128187656403,"25":-0.23129427433013916,"26":-0.12182053178548813,"27":0.16450664401054382,"28":0.10420135408639908,"29":-0.10667508095502853,"30":-0.07724626362323761,"31":0.06007448211312294,"32":-0.0638427883386612,"33":0.3995283842086792,"34":0.42312178015708923,"35":-0.4229445457458496,"36":-0.11865311861038208,"37":0.3876591920852661,"38":0.16164851188659668,"39":-0.21140152215957642,"40":-0.06343317776918411,"41":0.25183701515197754,"42":0.15505477786064148,"43":-0.21534119546413422,"44":-0.2047448754310608,"45":0.17462003231048584,"46":-0.0035674218088388443,"47":-0.10710809379816055,"48":0.1708093136548996,"49":-0.2899377942085266,"50":-0.27941617369651794,"51":0.3679850697517395,"52":0.12756407260894775,"53":-0.17572079598903656,"54":-0.21656563878059387,"55":0.27840080857276917,"56":-0.13454198837280273,"57":0.2270645797252655,"58":0.37216824293136597,"59":-0.45654013752937317,"60":-0.14192216098308563,"61":0.2907237410545349,"62":0.17406697571277618,"63":-0.2118689864873886}},"cellActivationBias":{"rows":8,"columns":1,"weights":{"0":-0.23470330238342285,"1":0.4799998104572296,"2":0.5469048023223877,"3":-0.502403974533081,"4":-0.5810868740081787,"5":0.48560163378715515,"6":0.5694618821144104,"7":-0.5155432224273682}}},{"inputMatrix":{"rows":8,"columns":8,"weights":{"0":0.23332537710666656,"1":-0.18391431868076324,"2":-0.09334154427051544,"3":0.1693347692489624,"4":0.2111922651529312,"5":-0.1252400279045105,"6":-0.1976991444826126,"7":0.14249570667743683,"8":-0.16658850014209747,"9":-0.170783132314682,"10":-0.11348807066679001,"11":0.14396633207798004,"12":-0.25772345066070557,"13":-0.16512161493301392,"14":0.11964026838541031,"15":-0.17900310456752777,"16":-0.1376487761735916,"17":-0.09473934769630432,"18":-0.04397737607359886,"19":0.13398908078670502,"20":-0.25036507844924927,"21":-0.1550079882144928,"22":0.1421319842338562,"23":-0.17139634490013123,"24":-0.18332123756408691,"25":-0.0985456183552742,"26":-0.05163012444972992,"27":0.04539312422275543,"28":-0.14754292368888855,"29":-0.19600479304790497,"30":0.22006821632385254,"31":-0.24481619894504547,"32":-0.1421615332365036,"33":-0.125025674700737,"34":-0.19313645362854004,"35":0.1371065378189087,"36":-0.2885621190071106,"37":-0.07698581367731094,"38":0.23763366043567657,"39":-0.15649206936359406,"40":0.17095693945884705,"41":-0.1332584023475647,"42":-0.11581581830978394,"43":0.13382969796657562,"44":0.2065775841474533,"45":-0.2174157053232193,"46":-0.16412506997585297,"47":0.14861924946308136,"48":0.23140807449817657,"49":-0.0999472364783287,"50":-0.071992427110672,"51":-0.008166730403900146,"52":0.19105133414268494,"53":-0.10048896074295044,"54":-0.2031434327363968,"55":0.14819025993347168,"56":0.21732375025749207,"57":-0.07957055419683456,"58":-0.0964994877576828,"59":0.09530483931303024,"60":0.14323298633098602,"61":-0.006916442420333624,"62":-0.15198436379432678,"63":0.19447550177574158}},"inputHidden":{"rows":8,"columns":8,"weights":{"0":-0.14860409498214722,"1":-0.2040300816297531,"2":0.21987095475196838,"3":-0.14971716701984406,"4":0.22025693953037262,"5":-0.08666011691093445,"6":0.0953361913561821,"7":0.10704748332500458,"8":0.17654001712799072,"9":-0.07953844219446182,"10":0.2010660171508789,"11":-0.14459766447544098,"12":0.176343634724617,"13":0.27616193890571594,"14":-0.2671641409397125,"15":-0.30828583240509033,"16":0.2042262703180313,"17":-0.13381114602088928,"18":0.05170007422566414,"19":-0.11466103047132492,"20":0.05689691752195358,"21":0.30066969990730286,"22":-0.3404781222343445,"23":-0.31269320845603943,"24":0.20124132931232452,"25":-0.1273975521326065,"26":0.14498892426490784,"27":-0.12491952627897263,"28":0.07846374809741974,"29":0.23259903490543365,"30":-0.2892746329307556,"31":-0.28987351059913635,"32":0.18818621337413788,"33":-0.11428666114807129,"34":0.18665669858455658,"35":-0.22731880843639374,"36":0.13398967683315277,"37":0.2263871431350708,"38":-0.23172102868556976,"39":-0.27811384201049805,"40":-0.13022445142269135,"41":-0.16147348284721375,"42":0.16207736730575562,"43":-0.20062588155269623,"44":0.2276323139667511,"45":-0.05682463198900223,"46":0.22083066403865814,"47":0.2342214584350586,"48":-0.2299593687057495,"49":0.08003902435302734,"50":0.029686741530895233,"51":-0.032175589352846146,"52":-0.01249184925109148,"53":-0.16944216191768646,"54":0.11024893820285797,"55":0.10093337297439575,"56":-0.16672220826148987,"57":-0.01625038869678974,"58":-0.05807710811495781,"59":-0.016339892521500587,"60":-0.09859554469585419,"61":-0.12310791015625,"62":0.2110133022069931,"63":0.1998564749956131}},"inputBias":{"rows":8,"columns":1,"weights":{"0":-0.15699529647827148,"1":0.8917008638381958,"2":0.8919984698295593,"3":0.880611777305603,"4":0.877532958984375,"5":-0.2673509418964386,"6":-0.13546819984912872,"7":-0.1322648823261261}},"forgetMatrix":{"rows":8,"columns":8,"weights":{"0":0.1844691038131714,"1":-0.22328226268291473,"2":-0.09432031959295273,"3":0.18611116707324982,"4":0.09331853687763214,"5":-0.08566907048225403,"6":-0.20875565707683563,"7":0.22541368007659912,"8":-0.2666292190551758,"9":-0.153310164809227,"10":-0.07226700335741043,"11":0.05408485606312752,"12":-0.3047148585319519,"13":-0.1444193720817566,"14":0.09937642514705658,"15":-0.28910449147224426,"16":-0.18032130599021912,"17":-0.07764843106269836,"18":-0.08043757826089859,"19":0.044759634882211685,"20":-0.21376049518585205,"21":-0.10682064294815063,"22":0.21472251415252686,"23":-0.2441512942314148,"24":-0.2375686913728714,"25":-0.18019719421863556,"26":-0.10470996797084808,"27":0.1701170802116394,"28":-0.3215022385120392,"29":-0.06740428507328033,"30":0.1328907310962677,"31":-0.15860116481781006,"32":-0.3154359459877014,"33":-0.20652806758880615,"34":-0.14800377190113068,"35":0.14400404691696167,"36":-0.19599784910678864,"37":-0.10506540536880493,"38":0.1754707396030426,"39":-0.18450705707073212,"40":0.16176889836788177,"41":-0.12033552676439285,"42":-0.23369227349758148,"43":0.17303580045700073,"44":0.08987059444189072,"45":-0.15656320750713348,"46":-0.14284203946590424,"47":0.1588422805070877,"48":0.12483848631381989,"49":-0.11756497621536255,"50":-0.14470769464969635,"51":0.11788291484117508,"52":0.15033677220344543,"53":-0.2002122849225998,"54":-0.17300625145435333,"55":0.09243888407945633,"56":0.21984733641147614,"57":-0.1603044867515564,"58":-0.12890368700027466,"59":0.18947502970695496,"60":0.11071565002202988,"61":-0.15878435969352722,"62":-0.13475143909454346,"63":0.16702505946159363}},"forgetHidden":{"rows":8,"columns":8,"weights":{"0":-0.22790393233299255,"1":-0.13078264892101288,"2":0.17785747349262238,"3":-0.1796272248029709,"4":0.18195262551307678,"5":-0.20095816254615784,"6":0.09167660027742386,"7":0.1959095448255539,"8":0.20280225574970245,"9":-0.13699115812778473,"10":0.0879669189453125,"11":-0.10962788760662079,"12":0.11277581751346588,"13":0.2746777832508087,"14":-0.35890448093414307,"15":-0.3679228127002716,"16":0.1671818643808365,"17":-0.12090351432561874,"18":0.11333220452070236,"19":-0.027502862736582756,"20":0.05958903208374977,"21":0.24689126014709473,"22":-0.29754361510276794,"23":-0.3792158365249634,"24":0.142764613032341,"25":-0.03987850248813629,"26":0.018879814073443413,"27":-0.017227135598659515,"28":0.0965062752366066,"29":0.29092472791671753,"30":-0.3729197382926941,"31":-0.34080740809440613,"32":0.22090104222297668,"33":-0.031782906502485275,"34":0.0698317140340805,"35":-0.13071942329406738,"36":0.028266554698348045,"37":0.3452104926109314,"38":-0.3181803524494171,"39":-0.35436174273490906,"40":-0.0840420201420784,"41":-0.11630244553089142,"42":0.17629875242710114,"43":-0.17016108334064484,"44":0.23355820775032043,"45":-0.011217212304472923,"46":0.08765286207199097,"47":0.15385903418064117,"48":-0.16683842241764069,"49":-0.11345630884170532,"50":0.1298792064189911,"51":-0.1580415815114975,"52":0.15218566358089447,"53":-0.1510281264781952,"54":0.1310933232307434,"55":0.13448308408260345,"56":-0.19206295907497406,"57":-0.023075472563505173,"58":0.08329793065786362,"59":-0.03091955929994583,"60":0.10113438218832016,"61":-0.15880008041858673,"62":0.1434262990951538,"63":0.1878429502248764}},"forgetBias":{"rows":8,"columns":1,"weights":{"0":0,"1":0,"2":0,"3":0,"4":0,"5":0,"6":0,"7":0}},"outputMatrix":{"rows":8,"columns":8,"weights":{"0":0.19943469762802124,"1":-0.19397187232971191,"2":-0.14578700065612793,"3":0.07797644287347794,"4":0.23256133496761322,"5":-0.15665815770626068,"6":-0.1511186808347702,"7":0.10739534348249435,"8":-0.20351310074329376,"9":-0.01157517358660698,"10":-0.056945692747831345,"11":-0.01581427827477455,"12":-0.2682153582572937,"13":-0.009015128947794437,"14":0.13725820183753967,"15":-0.16269420087337494,"16":-0.17264418303966522,"17":-0.06463029235601425,"18":-0.056168217211961746,"19":-0.011811268515884876,"20":-0.2433902770280838,"21":0.037520721554756165,"22":0.08011238276958466,"23":-0.18753057718276978,"24":-0.3005199432373047,"25":-0.128056138753891,"26":-0.0607602596282959,"27":0.0216668788343668,"28":-0.2940841317176819,"29":-0.034852318465709686,"30":0.09621322900056839,"31":-0.25735968351364136,"32":-0.23360790312290192,"33":-0.10925885289907455,"34":0.00985731091350317,"35":-0.0011947561288252473,"36":-0.31950730085372925,"37":-0.07461710274219513,"38":0.17631980776786804,"39":-0.2728668749332428,"40":0.19870923459529877,"41":-0.08017558604478836,"42":-0.1510811150074005,"43":0.12894457578659058,"44":0.2225707769393921,"45":-0.22422818839550018,"46":-0.23277637362480164,"47":0.11524631083011627,"48":0.1190091222524643,"49":-0.04987386614084244,"50":-0.004976806230843067,"51":0.0775488018989563,"52":0.213923379778862,"53":-0.06956442445516586,"54":-0.1647663712501526,"55":0.2210296243429184,"56":0.12838934361934662,"57":-0.11944837123155594,"58":-0.11458870023488998,"59":0.0755295604467392,"60":0.18917158246040344,"61":-0.17104770243167877,"62":-0.14679037034511566,"63":0.1595059037208557}},"outputHidden":{"rows":8,"columns":8,"weights":{"0":-0.09764409810304642,"1":-0.11595451086759567,"2":0.20643997192382812,"3":-0.1446397453546524,"4":0.17643803358078003,"5":-0.14576172828674316,"6":0.1826179027557373,"7":0.10727129876613617,"8":0.2365807145833969,"9":0.013379990123212337,"10":0.05398400500416756,"11":-0.05219255015254021,"12":-0.060308728367090225,"13":0.2690485715866089,"14":-0.350742906332016,"15":-0.33714696764945984,"16":0.21430957317352295,"17":-0.08022826910018921,"18":0.021244531497359276,"19":0.01265247818082571,"20":0.0031469676177948713,"21":0.2825581431388855,"22":-0.29231128096580505,"23":-0.33582133054733276,"24":0.2872985899448395,"25":0.039827387779951096,"26":0.08376070111989975,"27":0.028561608865857124,"28":-0.04973630607128143,"29":0.3237610161304474,"30":-0.37215229868888855,"31":-0.408164381980896,"32":0.13279588520526886,"33":-0.03166477009654045,"34":-0.01587994024157524,"35":-0.04178907349705696,"36":-0.03920610994100571,"37":0.24007338285446167,"38":-0.34691548347473145,"39":-0.34232228994369507,"40":-0.23043055832386017,"41":-0.25146403908729553,"42":0.20941337943077087,"43":-0.27737465500831604,"44":0.19211524724960327,"45":-0.08564832806587219,"46":0.11205773055553436,"47":0.23924511671066284,"48":-0.1323360800743103,"49":0.002606889931485057,"50":-0.06007007509469986,"51":-0.08277234435081482,"52":-0.01494197640568018,"53":-0.12949366867542267,"54":0.2540816366672516,"55":0.11502782255411148,"56":-0.11730880290269852,"57":0.10389019548892975,"58":-0.054913099855184555,"59":0.04663003608584404,"60":-0.022915856912732124,"61":-0.2203974574804306,"62":0.22320227324962616,"63":0.124703548848629}},"outputBias":{"rows":8,"columns":1,"weights":{"0":-0.15702755749225616,"1":0.8966065049171448,"2":0.9077404737472534,"3":0.8957604765892029,"4":0.8855531811714172,"5":-0.26625144481658936,"6":-0.13554556667804718,"7":-0.13195085525512695}},"cellActivationMatrix":{"rows":8,"columns":8,"weights":{"0":0.25398048758506775,"1":-0.04900610074400902,"2":0.04905708506703377,"3":0.014036920852959156,"4":0.26539117097854614,"5":0.04510113596916199,"6":-0.3376591205596924,"7":0.2800106704235077,"8":-0.0207945816218853,"9":0.3018309772014618,"10":0.3353539705276489,"11":-0.32542094588279724,"12":0.007894623093307018,"13":0.2588745653629303,"14":0.0646480992436409,"15":0.0538138821721077,"16":0.0022982775699347258,"17":-0.28616464138031006,"18":-0.30903029441833496,"19":0.2760348916053772,"20":-0.006886606570333242,"21":-0.28089603781700134,"22":0.06564345955848694,"23":0.05879450589418411,"24":0.045642610639333725,"25":0.3207554221153259,"26":0.2352200448513031,"27":-0.17288994789123535,"28":-0.12408623099327087,"29":0.33012691140174866,"30":0.03672930598258972,"31":-0.07672280073165894,"32":-0.027352701872587204,"33":-0.2917918860912323,"34":-0.20836009085178375,"35":0.2690820097923279,"36":0.002458392409607768,"37":-0.26838648319244385,"38":-0.059884000569581985,"39":0.016720131039619446,"40":0.16728933155536652,"41":-0.07728210836648941,"42":-0.11555222421884537,"43":0.07087826728820801,"44":0.0934290960431099,"45":-0.1765228509902954,"46":-0.19522614777088165,"47":0.15706948935985565,"48":-0.2967367172241211,"49":0.0076446980237960815,"50":0.04804657772183418,"51":-0.12201450765132904,"52":-0.34466245770454407,"53":0.0751766487956047,"54":0.38203319907188416,"55":-0.2328600138425827,"56":-0.2713969349861145,"57":0.058374062180519104,"58":0.041347045451402664,"59":-0.07994247227907181,"60":-0.2894963026046753,"61":0.03365122154355049,"62":0.25652214884757996,"63":-0.3399011790752411}},"cellActivationHidden":{"rows":8,"columns":8,"weights":{"0":-0.21477475762367249,"1":-0.10053528845310211,"2":0.07583872228860855,"3":-0.1864098161458969,"4":0.1180112287402153,"5":-0.27292174100875854,"6":0.10728903859853745,"7":0.251977801322937,"8":0.058469370007514954,"9":-0.015155338682234287,"10":-0.10076253116130829,"11":0.16568885743618011,"12":-0.14144153892993927,"13":0.1677001565694809,"14":-0.07324391603469849,"15":-0.10976415872573853,"16":-0.07748129218816757,"17":-0.12126389145851135,"18":0.06500165164470673,"19":-0.10480411350727081,"20":0.08835579454898834,"21":-0.11995422840118408,"22":0.20961736142635345,"23":0.08646373450756073,"24":0.12020013481378555,"25":0.0576455183327198,"26":-0.08702217787504196,"27":-0.009754416532814503,"28":0.04117968678474426,"29":0.1450251340866089,"30":-0.1625097393989563,"31":-0.19941303133964539,"32":-0.07067544013261795,"33":0.01200825348496437,"34":0.06246189400553703,"35":-0.14053909480571747,"36":0.12266585230827332,"37":-0.03753311559557915,"38":0.2108316719532013,"39":0.09086938202381134,"40":-0.11099463701248169,"41":-0.09132877737283707,"42":0.2238418608903885,"43":-0.10640973597764969,"44":0.22045107185840607,"45":-0.2188481092453003,"46":0.19792674481868744,"47":0.2247076779603958,"48":0.10549873113632202,"49":0.2332497239112854,"50":-0.2783321142196655,"51":0.248678520321846,"52":-0.28772521018981934,"53":0.18386316299438477,"54":-0.08250315487384796,"55":-0.24766391515731812,"56":0.2680934965610504,"57":0.32479867339134216,"58":-0.29087862372398376,"59":0.1728203296661377,"60":-0.30001550912857056,"61":0.23183996975421906,"62":-0.15943852066993713,"63":-0.1655539572238922}},"cellActivationBias":{"rows":8,"columns":1,"weights":{"0":-0.06444680690765381,"1":0.6979913115501404,"2":-0.6924763917922974,"3":0.6869434714317322,"4":-0.671619176864624,"5":-0.11805399507284164,"6":0.01640845648944378,"7":0.025874387472867966}}}],"outputConnector":{"rows":4,"columns":8,"weights":{"0":-0.04763123393058777,"1":0.2832129895687103,"2":-0.25197920203208923,"3":0.2457789182662964,"4":-0.2870337963104248,"5":0.016349751502275467,"6":-0.0685773715376854,"7":-0.05177484452724457,"8":0.011637886054813862,"9":0.24157167971134186,"10":-0.31090009212493896,"11":0.21971245110034943,"12":-0.18845580518245697,"13":0.06108415126800537,"14":-0.03972205892205238,"15":-0.07142557203769684,"16":-0.053594816476106644,"17":0.2628149390220642,"18":-0.1641463190317154,"19":0.1743849813938141,"20":-0.29600778222084045,"21":0.15251466631889343,"22":-0.028565198183059692,"23":-0.08482804894447327,"24":0.02944718301296234,"25":0.10570385307073593,"26":-0.187330961227417,"27":0.19955965876579285,"28":-0.22524628043174744,"29":0.11044078320264816,"30":-0.04567958414554596,"31":0.0467347577214241}},"output":{"rows":4,"columns":1,"weights":{"0":0.621334969997406,"1":0.6592822670936584,"2":0.6901142597198486,"3":0.7437320351600647}},"inputLookup":{"open":0,"high":1,"low":2,"close":3},"inputLookupLength":4,"outputLookup":{"open":0,"high":1,"low":2,"close":3},"outputLookupLength":4}