{"type":"LSTMTimeStep","options":{"inputSize":4,"hiddenLayers":[8,6,4],"outputSize":4,"decayRate":0.999,"smoothEps":1e-8,"regc":0.000001,"clipval":5},"hiddenLayers":[{"inputMatrix":{"rows":8,"columns":4,"weights":{"0":-0.18860749900341034,"1":-0.07225317507982254,"2":-0.1260913908481598,"3":-0.07613417506217957,"4":-0.08781230449676514,"5":0.013331047259271145,"6":0.033316850662231445,"7":0.03833978995680809,"8":-0.012732886709272861,"9":-0.03351030498743057,"10":0.007069447543472052,"11":-0.014947107993066311,"12":-0.1344524621963501,"13":-0.06578519940376282,"14":-0.2004004567861557,"15":-0.1727273315191269,"16":-0.034150537103414536,"17":-0.03961246833205223,"18":-0.04016706347465515,"19":-0.06442863494157791,"20":-0.08195190876722336,"21":-0.21456781029701233,"22":-0.08918366581201553,"23":-0.10875152051448822,"24":-0.15980544686317444,"25":-0.0737013891339302,"26":-0.017946893349289894,"27":-0.09436093270778656,"28":-0.101461261510849,"29":-0.11674273759126663,"30":-0.1268606036901474,"31":-0.037843283265829086}},"inputHidden":{"rows":8,"columns":8,"weights":{"0":-0.1572885662317276,"1":0.1264624148607254,"2":-0.15529298782348633,"3":-0.13886481523513794,"4":-0.16820189356803894,"5":-0.170145183801651,"6":-0.11652754992246628,"7":0.17859111726284027,"8":-0.050399601459503174,"9":-0.024217577651143074,"10":-0.019712401553988457,"11":-0.027151117101311684,"12":-0.03255446255207062,"13":-0.051175039261579514,"14":-0.1551489681005478,"15":0.004946165252476931,"16":-0.18514196574687958,"17":0.12911996245384216,"18":-0.08953848481178284,"19":-0.12268700450658798,"20":-0.05341112241148949,"21":-0.16037611663341522,"22":-0.17740805447101593,"23":0.15132230520248413,"24":-0.16503974795341492,"25":0.011924728751182556,"26":-0.19389966130256653,"27":-0.18418872356414795,"28":-0.10751662403345108,"29":-0.10786996781826019,"30":-0.0939176082611084,"31":0.03794827312231064,"32":-0.09762272238731384,"33":0.053980231285095215,"34":-0.1694028079509735,"35":-0.06625232845544815,"36":-0.054601769894361496,"37":-0.12242602556943893,"38":-0.08195438235998154,"39":0.02835620567202568,"40":-0.11419476568698883,"41":0.10108497738838196,"42":-0.18191216886043549,"43":-0.18791703879833221,"44":0.0015744308475404978,"45":-0.06425923854112625,"46":-0.16995950043201447,"47":0.125072181224823,"48":-0.1354972869157791,"49":0.10992026329040527,"50":-0.11963731795549393,"51":-0.13941334187984467,"52":-0.1399099975824356,"53":-0.09206856042146683,"54":-0.08637460321187973,"55":0.19448472559452057,"56":-0.11295274645090103,"57":-0.02521047182381153,"58":-0.1163124367594719,"59":-0.11241389811038971,"60":0.028640780597925186,"61":-0.09051766991615295,"62":-0.07430087774991989,"63":0.0923759862780571}},"inputBias":{"rows":8,"columns":1,"weights":{"0":-0.12951095402240753,"1":0.3278915584087372,"2":-0.04898371919989586,"3":-0.13010576367378235,"4":0.09593865275382996,"5":-0.11939286440610886,"6":-0.11416660249233246,"7":0.10105422139167786}},"forgetMatrix":{"rows":8,"columns":4,"weights":{"0":-0.18470361828804016,"1":-0.1610618680715561,"2":-0.12386240810155869,"3":-0.05527649447321892,"4":-0.1630673110485077,"5":-0.03555665165185928,"6":-0.021695343777537346,"7":-0.14507706463336945,"8":-0.16681349277496338,"9":-0.10344037413597107,"10":-0.1043369397521019,"11":-0.09613846987485886,"12":-0.05657116696238518,"13":-0.20278611779212952,"14":-0.17020809650421143,"15":-0.17912524938583374,"16":-0.15092258155345917,"17":-0.028513193130493164,"18":-0.1119125634431839,"19":-0.09258861839771271,"20":-0.15426106750965118,"21":-0.11365486681461334,"22":-0.07406097650527954,"23":-0.1664244383573532,"24":-0.18250806629657745,"25":-0.1420726180076599,"26":-0.1957773119211197,"27":-0.1058243066072464,"28":-0.00867258571088314,"29":-0.012524855323135853,"30":-0.06068306043744087,"31":-0.08955364674329758}},"forgetHidden":{"rows":8,"columns":8,"weights":{"0":-0.06420764327049255,"1":0.02585979364812374,"2":-0.0599861703813076,"3":-0.09353460371494293,"4":-0.03422582522034645,"5":-0.04675888642668724,"6":-0.0631817877292633,"7":0.12255528569221497,"8":-0.0905943289399147,"9":0.05238769203424454,"10":-0.023351745679974556,"11":0.000581966363824904,"12":-0.00516735203564167,"13":0.02286420948803425,"14":-0.0675416886806488,"15":0.012542076408863068,"16":-0.10523170977830887,"17":-0.009878515265882015,"18":-0.05274349823594093,"19":-0.05773428454995155,"20":-0.14733873307704926,"21":-0.08810840547084808,"22":-0.09675418585538864,"23":0.011459357105195522,"24":0.010759004391729832,"25":-0.04552299156785011,"26":-0.07194603234529495,"27":-0.007670464459806681,"28":-0.04968469589948654,"29":-0.07813942432403564,"30":-0.028985915705561638,"31":0.040368519723415375,"32":0.029282713308930397,"33":0.06806487590074539,"34":0.01370865199714899,"35":0.02491338551044464,"36":-0.08372591435909271,"37":-0.09797512739896774,"38":0.03253890946507454,"39":0.09275883436203003,"40":-0.04014698788523674,"41":0.05856139957904816,"42":-0.07022833824157715,"43":-0.08058365434408188,"44":-0.006948533467948437,"45":-0.08022880554199219,"46":-0.09204015135765076,"47":0.061048779636621475,"48":-0.09486790746450424,"49":-0.0304415300488472,"50":-0.05347747728228569,"51":-0.06642873585224152,"52":-0.051110994070768356,"53":-0.09700339287519455,"54":-0.12637002766132355,"55":0.07459147274494171,"56":-0.07767008244991302,"57":0.004196106921881437,"58":0.04130014032125473,"59":-0.0670747235417366,"60":0.06690939515829086,"61":0.049330390989780426,"62":-0.07660321146249771,"63":-0.05445562303066254}},"forgetBias":{"rows":8,"columns":1,"weights":{"0":0,"1":0,"2":0,"3":0,"4":0,"5":0,"6":0,"7":0}},"outputMatrix":{"rows":8,"columns":4,"weights":{"0":-0.06907546520233154,"1":-0.11085930466651917,"2":-0.07984687387943268,"3":-0.10943881422281265,"4":-0.09044510871171951,"5":-0.03659376502037048,"6":-0.10986598581075668,"7":-0.010895957238972187,"8":0.04440274462103844,"9":-0.08870824426412582,"10":-0.10073629766702652,"11":0.049750007688999176,"12":-0.13531853258609772,"13":-0.11937824636697769,"14":-0.058949507772922516,"15":-0.053402334451675415,"16":-0.15410566329956055,"17":-0.10099951177835464,"18":-0.1471504271030426,"19":-0.1372930258512497,"20":-0.1422533392906189,"21":-0.14414195716381073,"22":-0.16828741133213043,"23":-0.06523767113685608,"24":-0.1114317923784256,"25":-0.00012911275553051382,"26":-0.06873437762260437,"27":-0.01752236858010292,"28":-0.16681650280952454,"29":-0.13017114996910095,"30":-0.19333161413669586,"31":-0.15334227681159973}},"outputHidden":{"rows":8,"columns":8,"weights":{"0":-0.13619007170200348,"1":0.11820867657661438,"2":-0.22564640641212463,"3":-0.09957171231508255,"4":-0.07410208135843277,"5":-0.19648368656635284,"6":-0.15365703403949738,"7":0.16884279251098633,"8":-0.04231308400630951,"9":0.0477956086397171,"10":-0.05411228910088539,"11":-0.07932516187429428,"12":-0.011537955142557621,"13":-0.08319863677024841,"14":-0.04370979592204094,"15":0.10176549851894379,"16":-0.20494034886360168,"17":0.1813979297876358,"18":-0.21734987199306488,"19":-0.20848236978054047,"20":-0.16534633934497833,"21":-0.13805629312992096,"22":-0.11973541975021362,"23":0.19429317116737366,"24":-0.12246926873922348,"25":0.16816529631614685,"26":-0.09286858141422272,"27":-0.20907823741436005,"28":-0.04413365200161934,"29":-0.14014773070812225,"30":-0.11381031572818756,"31":0.17389267683029175,"32":-0.04979891702532768,"33":0.0957266166806221,"34":-0.1397390514612198,"35":-0.11618310213088989,"36":-0.10748153924942017,"37":-0.07086306065320969,"38":-0.0739683285355568,"39":0.04963488131761551,"40":-0.21249201893806458,"41":0.15324294567108154,"42":-0.13078470528125763,"43":-0.17152473330497742,"44":-0.1594812572002411,"45":-0.11986173689365387,"46":-0.20017455518245697,"47":0.1849902719259262,"48":-0.15775169432163239,"49":0.17859071493148804,"50":-0.19036023318767548,"51":-0.15337958931922913,"52":-0.08808188140392303,"53":-0.20160731673240662,"54":-0.16592741012573242,"55":0.12996114790439606,"56":-0.15972574055194855,"57":0.005387086421251297,"58":-0.06964685022830963,"59":-0.13945002853870392,"60":-0.014797089621424675,"61":-0.03571885824203491,"62":-0.09598326683044434,"63":-0.0031265700235962868}},"outputBias":{"rows":8,"columns":1,"weights":{"0":-0.13099952042102814,"1":0.3682396709918976,"2":-0.05493311583995819,"3":-0.12994299829006195,"4":0.10045059770345688,"5":-0.12330187857151031,"6":-0.11657829582691193,"7":0.10310016572475433}},"cellActivationMatrix":{"rows":8,"columns":4,"weights":{"0":0.06669311970472336,"1":0.044714055955410004,"2":0.05171814560890198,"3":-0.00993491429835558,"4":0.16673000156879425,"5":0.15296344459056854,"6":0.16456550359725952,"7":0.11953432857990265,"8":0.12307660281658173,"9":0.11803019791841507,"10":0.15134678781032562,"11":0.08455821126699448,"12":-0.010529986582696438,"13":0.03684572875499725,"14":0.08551093190908432,"15":-0.029269078746438026,"16":-0.05897825211286545,"17":-0.17501898109912872,"18":-0.08606527745723724,"19":-0.08630651235580444,"20":-0.04967521131038666,"21":0.027721960097551346,"22":-0.01388145424425602,"23":0.01023244857788086,"24":-0.01962854526937008,"25":0.09305845201015472,"26":0.12715792655944824,"27":0.07647132128477097,"28":0.07587061822414398,"29":0.17981600761413574,"30":0.06693568080663681,"31":0.12043154239654541}},"cellActivationHidden":{"rows":8,"columns":8,"weights":{"0":-0.14709703624248505,"1":0.03685646504163742,"2":-0.11487638205289841,"3":-0.127776637673378,"4":-0.05062546953558922,"5":-0.15173113346099854,"6":-0.17461717128753662,"7":0.05968601256608963,"8":0.06399023532867432,"9":-0.08665097504854202,"10":0.05930677801370621,"11":0.14304785430431366,"12":0.14748576283454895,"13":0.16754937171936035,"14":0.07994776219129562,"15":-0.07494337111711502,"16":-0.09548765420913696,"17":0.12609413266181946,"18":-0.09732059389352798,"19":-0.16063059866428375,"20":-0.0700003057718277,"21":-0.04426134377717972,"22":-0.030812261626124382,"23":0.061053235083818436,"24":-0.08532118797302246,"25":0.14160194993019104,"26":-0.07334420830011368,"27":-0.06408099830150604,"28":-0.08947398513555527,"29":-0.17963901162147522,"30":-0.09398657083511353,"31":0.07009855657815933,"32":-0.19699200987815857,"33":0.17700248956680298,"34":-0.06293057650327682,"35":-0.1252516806125641,"36":-0.16888371109962463,"37":-0.0692455992102623,"38":-0.18542054295539856,"39":0.1135188415646553,"40":-0.1748724728822708,"41":0.17233550548553467,"42":-0.17795757949352264,"43":-0.10052808374166489,"44":-0.05649351328611374,"45":-0.10329277068376541,"46":-0.13652297854423523,"47":0.17210602760314941,"48":-0.13286487758159637,"49":0.10171400755643845,"50":-0.1361815333366394,"51":-0.11835160106420517,"52":-0.120107002556324,"53":-0.18438690900802612,"54":-0.05183369666337967,"55":0.17261402308940887,"56":0.1116333082318306,"57":-0.06364373117685318,"58":0.08651713281869888,"59":0.08673617988824844,"60":0.006933826021850109,"61":0.10045038163661957,"62":0.08604077994823456,"63":-0.1231280192732811}},"cellActivationBias":{"rows":8,"columns":1,"weights":{"0":-0.04661085084080696,"1":0.4282934069633484,"2":0.1344357579946518,"3":-0.09685339778661728,"4":-0.31417015194892883,"5":-0.13527359068393707,"6":0.018629560247063637,"7":0.35689184069633484}}},{"inputMatrix":{"rows":6,"columns":8,"weights":{"0":-0.17115293443202972,"1":0.1291743367910385,"2":-0.0631670281291008,"3":-0.14152461290359497,"4":-0.10767023265361786,"5":-0.06650573760271072,"6":-0.10547702014446259,"7":0.12896624207496643,"8":-0.11145603656768799,"9":0.22498825192451477,"10":-0.14804908633232117,"11":-0.17455501854419708,"12":-0.12393847107887268,"13":-0.19451649487018585,"14":-0.029398206621408463,"15":0.16942442953586578,"16":-0.039373788982629776,"17":0.1947483867406845,"18":-0.02479805424809456,"19":-0.13319061696529388,"20":-0.19069822132587433,"21":-0.14329302310943604,"22":-0.1095995157957077,"23":0.20268049836158752,"24":-0.07854422181844711,"25":0.21738559007644653,"26":-0.03371857479214668,"27":-0.04756815358996391,"28":-0.19275981187820435,"29":-0.1068250983953476,"30":-0.13816602528095245,"31":0.1723794937133789,"32":-0.1508241444826126,"33":0.10623877495527267,"34":-0.05900708585977554,"35":-0.03340362384915352,"36":-0.21910633146762848,"37":-0.07217933237552643,"38":-0.13206028938293457,"39":0.1393452137708664,"40":-0.04454619809985161,"41":0.23641017079353333,"42":-0.11121416836977005,"43":-0.10338447988033295,"44":-0.13550695776939392,"45":-0.06944391131401062,"46":-0.0417264848947525,"47":0.17329750955104828}},"inputHidden":{"rows":6,"columns":6,"weights":{"0":-0.20039032399654388,"1":-0.11201198399066925,"2":0.21194370090961456,"3":0.19652210175991058,"4":0.2005249410867691,"5":0.10931535810232162,"6":-0.12287350744009018,"7":-0.0738590657711029,"8":0.1314912736415863,"9":0.11172963678836823,"10":0.09249881654977798,"11":0.1647704541683197,"12":-0.12368981540203094,"13":-0.09931682050228119,"14":0.0955117866396904,"15":0.17871864140033722,"16":0.1814022809267044,"17":0.13075140118598938,"18":-0.059892017394304276,"19":-0.04770728573203087,"20":0.06390770524740219,"21":0.08807669579982758,"22":0.09625662118196487,"23":0.10334412008523941,"24":-0.0531136654317379,"25":-0.09194260090589523,"26":0.06099715083837509,"27":0.17873992025852203,"28":0.08018137514591217,"29":0.12666891515254974,"30":-0.1585991233587265,"31":-0.08152981847524643,"32":0.08707524091005325,"33":0.12375134974718094,"34":0.12278629094362259,"35":0.08514265716075897}},"inputBias":{"rows":6,"columns":1,"weights":{"0":0.4462592601776123,"1":0.4081469178199768,"2":0.4476359188556671,"3":0.4134044051170349,"4":0.4853771924972534,"5":0.4446675479412079}},"forgetMatrix":{"rows":6,"columns":8,"weights":{"0":-0.11452098935842514,"1":0.12853847444057465,"2":-0.12713071703910828,"3":-0.11511582881212234,"4":-0.07681090384721756,"5":-0.14678214490413666,"6":-0.20055818557739258,"7":0.1019895151257515,"8":-0.1087670624256134,"9":0.1783606857061386,"10":-0.12702879309654236,"11":-0.16099156439304352,"12":-0.11327704042196274,"13":-0.2109638750553131,"14":-0.06377099454402924,"15":0.061740580946207047,"16":-0.10360856354236603,"17":0.014938232488930225,"18":-0.21705499291419983,"19":-0.0876438096165657,"20":-0.12519524991512299,"21":-0.14477455615997314,"22":-0.16017687320709229,"23":0.06918438524007797,"24":-0.15901298820972443,"25":0.087399423122406,"26":-0.0977683812379837,"27":-0.1766604632139206,"28":-0.0442623496055603,"29":-0.1574583649635315,"30":-0.08944839984178543,"31":0.20034503936767578,"32":-0.11364687979221344,"33":0.03360351175069809,"34":-0.15602946281433105,"35":-0.196693554520607,"36":-0.11055626720190048,"37":-0.1625685691833496,"38":-0.09393683820962906,"39":0.11970926076173782,"40":-0.16645877063274384,"41":0.046715788543224335,"42":-0.13133196532726288,"43":-0.20680361986160278,"44":-0.1524512767791748,"45":-0.06331754475831985,"46":-0.2166822999715805,"47":0.17282801866531372}},"forgetHidden":{"rows":6,"columns":6,"weights":{"0":-0.09002685546875,"1":-0.15981563925743103,"2":0.15801841020584106,"3":0.1561070829629898,"4":0.13965077698230743,"5":0.14886464178562164,"6":-0.16684985160827637,"7":-0.06948013603687286,"8":0.19194993376731873,"9":0.11821122467517853,"10":0.05883178859949112,"11":0.18922720849514008,"12":-0.22409780323505402,"13":-0.21963264048099518,"14":0.20885606110095978,"15":0.2166750431060791,"16":0.19456607103347778,"17":0.179806187748909,"18":-0.16924923658370972,"19":-0.05839044973254204,"20":0.12859214842319489,"21":0.12847800552845,"22":0.05876315012574196,"23":0.17536480724811554,"24":-0.11043984442949295,"25":-0.17693790793418884,"26":0.17834582924842834,"27":0.12110939621925354,"28":0.13993006944656372,"29":0.1772870123386383,"30":-0.09076302498579025,"31":-0.11162301898002625,"32":0.0896410271525383,"33":0.12351750582456589,"34":0.13880638778209686,"35":0.1891278326511383}},"forgetBias":{"rows":6,"columns":1,"weights":{"0":0,"1":0,"2":0,"3":0,"4":0,"5":0}},"outputMatrix":{"rows":6,"columns":8,"weights":{"0":-0.08980587869882584,"1":0.09688904136419296,"2":-0.018820330500602722,"3":-0.16560056805610657,"4":-0.16610272228717804,"5":-0.20532572269439697,"6":-0.12338025867938995,"7":0.2205507606267929,"8":-0.07331892848014832,"9":0.1931747943162918,"10":-0.0002877751539926976,"11":-0.1815432459115982,"12":-0.11433295160531998,"13":-0.12429329007863998,"14":-0.15397591888904572,"15":0.08028162270784378,"16":-0.15622302889823914,"17":0.21887461841106415,"18":-0.10971450805664062,"19":-0.10672902315855026,"20":-0.19291141629219055,"21":-0.05848490819334984,"22":-0.079894058406353,"23":0.19688688218593597,"24":-0.17156317830085754,"25":0.25013795495033264,"26":-0.016453852877020836,"27":-0.16951929032802582,"28":-0.21762239933013916,"29":-0.16910645365715027,"30":-0.09019384533166885,"31":0.12984216213226318,"32":-0.04343613609671593,"33":0.12261679768562317,"34":-0.021139414981007576,"35":-0.12945574522018433,"36":-0.1822381615638733,"37":-0.15860721468925476,"38":-0.1124318391084671,"39":0.1565416157245636,"40":-0.06237722933292389,"41":0.09315354377031326,"42":-0.019643660634756088,"43":-0.02511214278638363,"44":-0.18752799928188324,"45":-0.06993085891008377,"46":-0.09171085059642792,"47":0.21794068813323975}},"outputHidden":{"rows":6,"columns":6,"weights":{"0":-0.08394616097211838,"1":-0.07897448539733887,"2":0.20874212682247162,"3":0.09117712080478668,"4":0.11026624590158463,"5":0.11044896394014359,"6":-0.16153234243392944,"7":-0.1628981977701187,"8":0.10275666415691376,"9":0.1609547883272171,"10":0.1580781787633896,"11":0.07047426700592041,"12":-0.12326668202877045,"13":-0.1704181283712387,"14":0.18236252665519714,"15":0.07842238247394562,"16":0.04434577375650406,"17":0.10441430658102036,"18":-0.16017231345176697,"19":-0.10663604736328125,"20":0.02541840262711048,"21":0.03362956643104553,"22":0.038868796080350876,"23":0.181437686085701,"24":-0.13406789302825928,"25":-0.16683225333690643,"26":0.13169196248054504,"27":0.1412982940673828,"28":0.07871052622795105,"29":0.08228305727243423,"30":-0.08512790501117706,"31":-0.08260568976402283,"32":0.07309892028570175,"33":0.08298253268003464,"34":0.11682097613811493,"35":0.061253808438777924}},"outputBias":{"rows":6,"columns":1,"weights":{"0":0.4421460032463074,"1":0.41609084606170654,"2":0.4481672942638397,"3":0.4083367884159088,"4":0.48782485723495483,"5":0.45072442293167114}},"cellActivationMatrix":{"rows":6,"columns":8,"weights":{"0":0.026958290487527847,"1":0.08220372349023819,"2":0.14659619331359863,"3":0.01910504885017872,"4":-0.06434759497642517,"5":0.05598602071404457,"6":0.09814061224460602,"7":0.07174783200025558,"8":0.006913576275110245,"9":0.24391672015190125,"10":0.10619880259037018,"11":0.07144984602928162,"12":-0.0638466402888298,"13":-0.01319029089063406,"14":-0.025566058233380318,"15":0.08009963482618332,"16":0.018427018076181412,"17":-0.0928664281964302,"18":-0.1089870035648346,"19":0.028365081176161766,"20":0.1229768693447113,"21":-0.01401682198047638,"22":-0.08363267034292221,"23":-0.12469534575939178,"24":-0.09166917949914932,"25":-0.17708012461662292,"26":-0.09130553156137466,"27":-0.0560949370265007,"28":0.15025271475315094,"29":0.056116845458745956,"30":-0.09770004451274872,"31":-0.04652366042137146,"32":-0.05641891434788704,"33":-0.18643681704998016,"34":-0.09654838591814041,"35":-0.10768523067235947,"36":0.02661886252462864,"37":0.020017141476273537,"38":-0.07827657461166382,"39":-0.10666581988334656,"40":-0.08693860471248627,"41":-0.2177891731262207,"42":-0.04831390827894211,"43":0.048006121069192886,"44":0.09678156673908234,"45":-0.028666263446211815,"46":-0.07161778956651688,"47":-0.04726459085941315}},"cellActivationHidden":{"rows":6,"columns":6,"weights":{"0":-0.06550733000040054,"1":0.04529700428247452,"2":-0.035838451236486435,"3":-0.014473097398877144,"4":0.006677711382508278,"5":0.07192609459161758,"6":0.04558546468615532,"7":0.05661271885037422,"8":-0.027911251410841942,"9":0.037340883165597916,"10":-0.08064111322164536,"11":-0.055563636124134064,"12":0.012242897413671017,"13":0.029361484572291374,"14":0.04703366011381149,"15":0.01055435836315155,"16":-0.0029727157671004534,"17":-0.0648626983165741,"18":-0.07716603577136993,"19":-0.08211863040924072,"20":0.009979319758713245,"21":-0.026884514838457108,"22":0.08570035547018051,"23":-0.0030832786578685045,"24":0.029879705980420113,"25":0.05028751865029335,"26":-0.08439236134290695,"27":-0.046411532908678055,"28":-0.06373655050992966,"29":-0.025012776255607605,"30":-0.0669839084148407,"31":0.036903172731399536,"32":0.038942549377679825,"33":-0.07299166917800903,"34":-0.08085428923368454,"35":-0.013574457727372646}},"cellActivationBias":{"rows":6,"columns":1,"weights":{"0":0.6024449467658997,"1":0.5457597374916077,"2":-0.5820258259773254,"3":-0.5627396106719971,"4":-0.6423739790916443,"5":-0.5867312550544739}}},{"inputMatrix":{"rows":4,"columns":6,"weights":{"0":-0.12198686599731445,"1":-0.14683571457862854,"2":0.005979703273624182,"3":0.06141772121191025,"4":0.07407230138778687,"5":0.12377247959375381,"6":-0.07227661460638046,"7":-0.1562029868364334,"8":0.1339893490076065,"9":0.041503820568323135,"10":0.025835134088993073,"11":0.048058271408081055,"12":-0.08051572740077972,"13":-0.02355942688882351,"14":0.14357461035251617,"15":0.14280623197555542,"16":-0.030425073578953743,"17":0.08610103279352188,"18":0.008667384274303913,"19":-0.045897893607616425,"20":0.05026794597506523,"21":0.1591998040676117,"22":0.09363321214914322,"23":0.040186017751693726}},"inputHidden":{"rows":4,"columns":4,"weights":{"0":0.23399001359939575,"1":0.030968541279435158,"2":0.14730852842330933,"3":-0.008587697520852089,"4":0.2574954032897949,"5":0.0940253809094429,"6":0.23763564229011536,"7":-0.17100398242473602,"8":0.24583250284194946,"9":0.10950777679681778,"10":0.13834454119205475,"11":-0.1477154642343521,"12":0.16096694767475128,"13":0.11108987033367157,"14":0.22094827890396118,"15":-0.16806937754154205}},"inputBias":{"rows":4,"columns":1,"weights":{"0":0.9198235273361206,"1":0.9698446989059448,"2":1.0149126052856445,"3":1.0149827003479004}},"forgetMatrix":{"rows":4,"columns":6,"weights":{"0":-0.19506721198558807,"1":-0.1701025664806366,"2":0.24435783922672272,"3":0.13824917376041412,"4":0.19974811375141144,"5":0.12480437755584717,"6":-0.2165791392326355,"7":-0.23665401339530945,"8":0.2692314684391022,"9":0.26036718487739563,"10":0.33435872197151184,"11":0.23311907052993774,"12":-0.2252672165632248,"13":-0.34727033972740173,"14":0.3119451403617859,"15":0.3258993923664093,"16":0.17816787958145142,"17":0.31999683380126953,"18":-0.2811368703842163,"19":-0.30711042881011963,"20":0.24860186874866486,"21":0.2455083578824997,"22":0.30489975214004517,"23":0.3506123125553131}},"forgetHidden":{"rows":4,"columns":4,"weights":{"0":0.18372105062007904,"1":0.1605161875486374,"2":0.18395107984542847,"3":-0.18500900268554688,"4":0.22212527692317963,"5":0.14364048838615417,"6":0.18456900119781494,"7":-0.15616300702095032,"8":0.19023391604423523,"9":0.13898345828056335,"10":0.24733446538448334,"11":-0.1484929323196411,"12":0.1982179880142212,"13":0.24754942953586578,"14":0.1474095582962036,"15":-0.11987292766571045}},"forgetBias":{"rows":4,"columns":1,"weights":{"0":0,"1":0,"2":0,"3":0}},"outputMatrix":{"rows":4,"columns":6,"weights":{"0":-0.03328772261738777,"1":-0.1363781839609146,"2":0.0710686668753624,"3":0.10029926896095276,"4":0.012350272387266159,"5":0.007805209141224623,"6":-0.018976233899593353,"7":-0.1513441503047943,"8":0.11114366352558136,"9":0.16371646523475647,"10":0.019444076344370842,"11":0.10778491944074631,"12":-0.10253028571605682,"13":-0.04292837902903557,"14":0.08228749781847,"15":0.11134300380945206,"16":0.11780638247728348,"17":0.1579393446445465,"18":-0.1389562040567398,"19":-0.10280540585517883,"20":0.028251061215996742,"21":0.1921737641096115,"22":0.14215682446956635,"23":0.03689507022500038}},"outputHidden":{"rows":4,"columns":4,"weights":{"0":0.16687354445457458,"1":0.0047101522795856,"2":0.11700141429901123,"3":-0.02120538242161274,"4":0.21018052101135254,"5":0.13707482814788818,"6":0.12550166249275208,"7":-0.03259735926985741,"8":0.15339958667755127,"9":0.09034671634435654,"10":0.08738354593515396,"11":-0.09697684645652771,"12":0.11386440694332123,"13":0.12926964461803436,"14":0.19819791615009308,"15":-0.12910035252571106}},"outputBias":{"rows":4,"columns":1,"weights":{"0":0.9481311440467834,"1":1.0287737846374512,"2":1.0797327756881714,"3":1.0863174200057983}},"cellActivationMatrix":{"rows":4,"columns":6,"weights":{"0":-0.21589788794517517,"1":-0.17170105874538422,"2":0.1820639967918396,"3":0.1830175518989563,"4":0.23586010932922363,"5":0.19058124721050262,"6":-0.36073508858680725,"7":-0.3758138418197632,"8":0.3842407464981079,"9":0.37527814507484436,"10":0.4714852571487427,"11":0.44818294048309326,"12":-0.37112319469451904,"13":-0.3497352600097656,"14":0.3891981840133667,"15":0.38412728905677795,"16":0.3506149649620056,"17":0.314798504114151,"18":0.48102250695228577,"19":0.45063450932502747,"20":-0.4580724239349365,"21":-0.4275133013725281,"22":-0.48533308506011963,"23":-0.4317116439342499}},"cellActivationHidden":{"rows":4,"columns":4,"weights":{"0":0.026083752512931824,"1":0.1926499307155609,"2":0.10821890085935593,"3":-0.1949458122253418,"4":0.17819994688034058,"5":0.35309404134750366,"6":0.28883323073387146,"7":-0.3281444013118744,"8":0.13722525537014008,"9":0.24021950364112854,"10":0.23626546561717987,"11":-0.21538421511650085,"12":-0.23609855771064758,"13":-0.3061418831348419,"14":-0.24330154061317444,"15":0.30870482325553894}},"cellActivationBias":{"rows":4,"columns":1,"weights":{"0":-0.7022761702537537,"1":-0.8085511922836304,"2":-0.8163551688194275,"3":0.8429458737373352}}}],"outputConnector":{"rows":4,"columns":4,"weights":{"0":0.04187533259391785,"1":-0.11935582011938095,"2":-0.048650071024894714,"3":0.06206674128770828,"4":0.08453864604234695,"5":-0.027968628332018852,"6":-0.0974579006433487,"7":0.14551661908626556,"8":0.05993968993425369,"9":-0.0648840144276619,"10":-0.059966277331113815,"11":0.08714507520198822,"12":-0.004850506316870451,"13":-0.036114007234573364,"14":-0.017471859231591225,"15":0.0693875178694725}},"output":{"rows":4,"columns":1,"weights":{"0":0.9217068552970886,"1":0.9196658730506897,"2":0.9351009130477905,"3":0.9478586316108704}},"inputLookup":null,"inputLookupLength":null,"outputLookup":null,"outputLookupLength":null}