{"type":"LSTMTimeStep","options":{"inputSize":4,"hiddenLayers":[8,8],"outputSize":4,"decayRate":0.999,"smoothEps":1e-8,"regc":0.000001,"clipval":5},"hiddenLayers":[{"inputMatrix":{"rows":8,"columns":4,"weights":{"0":-0.3457486927509308,"1":-0.3729088306427002,"2":-0.3627089560031891,"3":-0.2513793110847473,"4":0.2364353984594345,"5":0.3430249094963074,"6":0.277940958738327,"7":0.336405485868454,"8":-0.1368345022201538,"9":-0.25192388892173767,"10":-0.11970449239015579,"11":-0.25654444098472595,"12":0.33287009596824646,"13":0.35486793518066406,"14":0.2632043957710266,"15":0.30738329887390137,"16":-0.26511630415916443,"17":-0.26953616738319397,"18":-0.29291489720344543,"19":-0.348540335893631,"20":0.2383061796426773,"21":0.26375052332878113,"22":0.17670045793056488,"23":0.17546844482421875,"24":-0.17380060255527496,"25":-0.09128473699092865,"26":-0.09035255759954453,"27":-0.10298364609479904,"28":0.3720879852771759,"29":0.29830360412597656,"30":0.37215617299079895,"31":0.2733982801437378}},"inputHidden":{"rows":8,"columns":8,"weights":{"0":-0.23392099142074585,"1":-0.1765037626028061,"2":-0.1368156373500824,"3":-0.2549099326133728,"4":-0.07107080519199371,"5":0.23792457580566406,"6":0.197068452835083,"7":0.27091702818870544,"8":0.13154393434524536,"9":0.2940058708190918,"10":0.08020041882991791,"11":0.2579790949821472,"12":0.03523144870996475,"13":-0.2554367482662201,"14":-0.08428402245044708,"15":-0.18143948912620544,"16":-0.11711809784173965,"17":-0.17946204543113708,"18":-0.039220839738845825,"19":-0.15130507946014404,"20":-0.12921065092086792,"21":0.16838638484477997,"22":0.21157677471637726,"23":0.1807309091091156,"24":0.1791599541902542,"25":0.1552896946668625,"26":0.08580883592367172,"27":0.25078386068344116,"28":0.17079007625579834,"29":-0.2621857523918152,"30":-0.15965938568115234,"31":-0.14874674379825592,"32":-0.16500131785869598,"33":-0.2398490309715271,"34":-0.0821266919374466,"35":-0.1956443041563034,"36":-0.06537146866321564,"37":0.2606683075428009,"38":0.2319476455450058,"39":0.30011841654777527,"40":0.1951720267534256,"41":0.14915741980075836,"42":0.0035420528147369623,"43":0.26103657484054565,"44":0.07563067227602005,"45":-0.15127795934677124,"46":-0.09611686319112778,"47":-0.2598566710948944,"48":-0.23316147923469543,"49":-0.15568818151950836,"50":-0.06484328210353851,"51":-0.21362018585205078,"52":-0.09065871685743332,"53":0.1380886733531952,"54":0.21521857380867004,"55":0.1359589546918869,"56":0.1252768486738205,"57":0.25077152252197266,"58":0.012471829541027546,"59":0.2276134490966797,"60":0.1572103202342987,"61":-0.25616124272346497,"62":-0.18577446043491364,"63":-0.21961438655853271}},"inputBias":{"rows":8,"columns":1,"weights":{"0":0.46558141708374023,"1":0.5823249816894531,"2":-0.09647548943758011,"3":0.5875697731971741,"4":0.08497781306505203,"5":0.6056776642799377,"6":0.4648273289203644,"7":0.5896165370941162}},"forgetMatrix":{"rows":8,"columns":4,"weights":{"0":-0.19930243492126465,"1":-0.24432383477687836,"2":-0.19801358878612518,"3":-0.30707043409347534,"4":0.23098313808441162,"5":0.26331984996795654,"6":0.2719866633415222,"7":0.31849971413612366,"8":-0.21223430335521698,"9":-0.1942388117313385,"10":-0.14105361700057983,"11":-0.12812255322933197,"12":0.31135866045951843,"13":0.18255411088466644,"14":0.2381436675786972,"15":0.3170718252658844,"16":-0.14979611337184906,"17":-0.1635046899318695,"18":-0.20005498826503754,"19":-0.18943870067596436,"20":0.2763209939002991,"21":0.1516694873571396,"22":0.1634807139635086,"23":0.27780666947364807,"24":-0.09355416148900986,"25":-0.19514834880828857,"26":-0.2320936620235443,"27":-0.14745457470417023,"28":0.3332221806049347,"29":0.22455675899982452,"30":0.25000473856925964,"31":0.30757936835289}},"forgetHidden":{"rows":8,"columns":8,"weights":{"0":0.000016781705198809505,"1":-0.142462819814682,"2":-0.08604685217142105,"3":-0.19196519255638123,"4":-0.1257123202085495,"5":0.13645119965076447,"6":0.1991489827632904,"7":0.14251329004764557,"8":0.17848356068134308,"9":0.271808385848999,"10":0.0671629011631012,"11":0.18229424953460693,"12":0.08770214766263962,"13":-0.17909769713878632,"14":-0.14317257702350616,"15":-0.2090786248445511,"16":-0.12395991384983063,"17":-0.16544286906719208,"18":-0.10115091502666473,"19":-0.1305931806564331,"20":-0.059024062007665634,"21":0.16825154423713684,"22":0.0771736428141594,"23":0.18048816919326782,"24":0.06519874930381775,"25":0.1220511943101883,"26":0.14013789594173431,"27":0.22829431295394897,"28":0.07225494086742401,"29":-0.1866336315870285,"30":-0.17176705598831177,"31":-0.20360179245471954,"32":-0.08693064004182816,"33":-0.24341613054275513,"34":-0.08929675817489624,"35":-0.12303613126277924,"36":0.005599165800958872,"37":0.26382681727409363,"38":0.10035240650177002,"39":0.18217341601848602,"40":0.11335209012031555,"41":0.19550947844982147,"42":0.08209812641143799,"43":0.11166732758283615,"44":-0.06546112895011902,"45":-0.09727790206670761,"46":-0.07704700529575348,"47":-0.14548788964748383,"48":-0.0866173580288887,"49":-0.14922954142093658,"50":-0.00701264338567853,"51":-0.17195545136928558,"52":-0.10762535035610199,"53":0.05825156345963478,"54":0.0974816083908081,"55":0.16896560788154602,"56":0.17380169034004211,"57":0.2173709124326706,"58":0.11142876744270325,"59":0.14695337414741516,"60":0.13180163502693176,"61":-0.16964267194271088,"62":-0.1126411035656929,"63":-0.19030684232711792}},"forgetBias":{"rows":8,"columns":1,"weights":{"0":0,"1":0,"2":0,"3":0,"4":0,"5":0,"6":0,"7":0}},"outputMatrix":{"rows":8,"columns":4,"weights":{"0":-0.33087804913520813,"1":-0.37217235565185547,"2":-0.359323114156723,"3":-0.2567014992237091,"4":0.31845831871032715,"5":0.2675277292728424,"6":0.3374679684638977,"7":0.35874202847480774,"8":-0.2694694995880127,"9":-0.24162358045578003,"10":-0.20716018974781036,"11":-0.18908922374248505,"12":0.32367074489593506,"13":0.34382113814353943,"14":0.28503546118736267,"15":0.38818082213401794,"16":-0.2895665764808655,"17":-0.2179475724697113,"18":-0.3670295774936676,"19":-0.297197550535202,"20":0.19721825420856476,"21":0.16840822994709015,"22":0.12785831093788147,"23":0.24938656389713287,"24":-0.1576363742351532,"25":-0.15266753733158112,"26":-0.12009529769420624,"27":-0.1291925609111786,"28":0.2630733251571655,"29":0.26949211955070496,"30":0.3888649642467499,"31":0.30273857712745667}},"outputHidden":{"rows":8,"columns":8,"weights":{"0":-0.14129726588726044,"1":-0.18513289093971252,"2":-0.16249442100524902,"3":-0.21188977360725403,"4":-0.1737516075372696,"5":0.21444375813007355,"6":0.187543585896492,"7":0.26813364028930664,"8":0.10614920407533646,"9":0.22601601481437683,"10":0.010326975956559181,"11":0.1765722930431366,"12":0.0022760634310543537,"13":-0.24722601473331451,"14":-0.04780891165137291,"15":-0.12873196601867676,"16":-0.07987140864133835,"17":-0.29690390825271606,"18":-0.1877816617488861,"19":-0.28876978158950806,"20":-0.1005830392241478,"21":0.15742337703704834,"22":0.20222020149230957,"23":0.15425173938274384,"24":0.0915408656001091,"25":0.27520084381103516,"26":0.14126494526863098,"27":0.21880117058753967,"28":-0.005991670768707991,"29":-0.22206903994083405,"30":-0.05362234637141228,"31":-0.26349806785583496,"32":-0.12139632552862167,"33":-0.239881694316864,"34":-0.04397208243608475,"35":-0.2271828055381775,"36":-0.15688718855381012,"37":0.3059108853340149,"38":0.12682081758975983,"39":0.32986146211624146,"40":0.04456634819507599,"41":0.1590929478406906,"42":0.019389469176530838,"43":0.24648097157478333,"44":0.08347117155790329,"45":-0.21368755400180817,"46":-0.01248788833618164,"47":-0.10655806213617325,"48":-0.26593533158302307,"49":-0.19796937704086304,"50":-0.11674583703279495,"51":-0.09005121141672134,"52":-0.129838228225708,"53":0.13897214829921722,"54":0.2632514536380768,"55":0.16462737321853638,"56":0.05472160130739212,"57":0.21305212378501892,"58":0.07800465077161789,"59":0.2230990082025528,"60":-0.0037225522100925446,"61":-0.11158392578363419,"62":-0.009045989252626896,"63":-0.2157219499349594}},"outputBias":{"rows":8,"columns":1,"weights":{"0":0.469727098941803,"1":0.6114249229431152,"2":-0.10190466046333313,"3":0.6136326789855957,"4":0.08353091031312943,"5":0.6691977977752686,"6":0.47955575585365295,"7":0.6245814561843872}},"cellActivationMatrix":{"rows":8,"columns":4,"weights":{"0":0.08839277923107147,"1":0.03340301662683487,"2":0.06633596122264862,"3":0.16396230459213257,"4":0.3457241952419281,"5":0.34750404953956604,"6":0.33415454626083374,"7":0.23693719506263733,"8":0.013913195580244064,"9":0.08516799658536911,"10":-0.013834009878337383,"11":-0.0004221493436489254,"12":0.34569454193115234,"13":0.2417023628950119,"14":0.3503807783126831,"15":0.30195221304893494,"16":0.09671273827552795,"17":0.030927538871765137,"18":0.12599918246269226,"19":0.016517959535121918,"20":-0.4071885645389557,"21":-0.3802507519721985,"22":-0.2810612618923187,"23":-0.2845556139945984,"24":-0.19264164566993713,"25":-0.16624332964420319,"26":-0.12317312508821487,"27":-0.14762276411056519,"28":-0.3429710566997528,"29":-0.28800299763679504,"30":-0.27767932415008545,"31":-0.320792555809021}},"cellActivationHidden":{"rows":8,"columns":8,"weights":{"0":-0.18207289278507233,"1":0.12828955054283142,"2":-0.34784647822380066,"3":0.045356422662734985,"4":-0.2938406467437744,"5":-0.026642346754670143,"6":0.26417574286460876,"7":-0.10509811341762543,"8":0.0802268460392952,"9":0.17488834261894226,"10":0.050491753965616226,"11":0.2987743020057678,"12":0.07925084978342056,"13":-0.13488267362117767,"14":-0.11143358051776886,"15":-0.19277556240558624,"16":-0.18234863877296448,"17":0.023608433082699776,"18":-0.16592508554458618,"19":-0.11266548186540604,"20":-0.12520895898342133,"21":0.052015241235494614,"22":0.19955725967884064,"23":0.046226367354393005,"24":0.048363469541072845,"25":0.31887519359588623,"26":0.07825369387865067,"27":0.23046518862247467,"28":0.025263506919145584,"29":-0.27486300468444824,"30":-0.16083163022994995,"31":-0.20300984382629395,"32":-0.10431763529777527,"33":-0.04253102093935013,"34":-0.17737214267253876,"35":0.08300259709358215,"36":-0.19304844737052917,"37":0.03440941125154495,"38":0.20123615860939026,"39":-0.07952045649290085,"40":-0.12461082637310028,"41":-0.24679629504680634,"42":-0.11041852831840515,"43":-0.2075624167919159,"44":-0.13701798021793365,"45":0.3055638074874878,"46":0.13004770874977112,"47":0.22416861355304718,"48":0.18400415778160095,"49":-0.07372406870126724,"50":0.33458593487739563,"51":-0.072227343916893,"52":0.3838251829147339,"53":-0.017673224210739136,"54":-0.13045915961265564,"55":0.004436940420418978,"56":0.05226150527596474,"57":-0.2432766556739807,"58":-0.014092160388827324,"59":-0.3509410321712494,"60":0.018984835594892502,"61":0.2764808237552643,"62":0.15665212273597717,"63":0.2511768639087677}},"cellActivationBias":{"rows":8,"columns":1,"weights":{"0":0.47079330682754517,"1":0.5220402479171753,"2":-0.09828373044729233,"3":0.5366733074188232,"4":0.20819078385829926,"5":-0.48719891905784607,"6":-0.3471982181072235,"7":-0.5725729465484619}}},{"inputMatrix":{"rows":8,"columns":8,"weights":{"0":-0.2069106251001358,"1":-0.24903984367847443,"2":-0.09611493349075317,"3":-0.23696371912956238,"4":-0.09023503214120865,"5":0.24987275898456573,"6":0.1637667864561081,"7":0.2711367607116699,"8":-0.1981922835111618,"9":-0.33080288767814636,"10":-0.16438613831996918,"11":-0.25238296389579773,"12":-0.10210234671831131,"13":0.3773123025894165,"14":0.19349561631679535,"15":0.2437075823545456,"16":0.17172744870185852,"17":0.1914103627204895,"18":0.05300780385732651,"19":0.220409095287323,"20":0.14569047093391418,"21":-0.23824924230575562,"22":-0.11169742792844772,"23":-0.19699010252952576,"24":0.0597071535885334,"25":0.1954161673784256,"26":0.09092287719249725,"27":0.25515949726104736,"28":0.13433396816253662,"29":-0.25456440448760986,"30":-0.06641175597906113,"31":-0.15210799872875214,"32":-0.08865298330783844,"33":-0.14747433364391327,"34":-0.04216010496020317,"35":-0.1985902637243271,"36":-0.056580327451229095,"37":0.1865752786397934,"38":0.060624971985816956,"39":0.13403825461864471,"40":0.18253004550933838,"41":0.17863981425762177,"42":0.061401356011629105,"43":0.18011100590229034,"44":0.06011026352643967,"45":-0.1966117024421692,"46":-0.07223009318113327,"47":-0.1772545427083969,"48":-0.19369888305664062,"49":-0.27666306495666504,"50":-0.08814006298780441,"51":-0.16646912693977356,"52":-0.10097021609544754,"53":0.23932501673698425,"54":0.21787641942501068,"55":0.1624298244714737,"56":0.11581733077764511,"57":0.22384284436702728,"58":0.0010895652230829,"59":0.21003396809101105,"60":0.032682690769433975,"61":-0.22456321120262146,"62":-0.041262805461883545,"63":-0.16354675590991974}},"inputHidden":{"rows":8,"columns":8,"weights":{"0":0.09910557419061661,"1":0.1339748054742813,"2":-0.3262092173099518,"3":-0.35441744327545166,"4":-0.12646181881427765,"5":0.2633836567401886,"6":-0.06458358466625214,"7":-0.29028084874153137,"8":0.1607924997806549,"9":0.101890429854393,"10":-0.450128436088562,"11":-0.4284726083278656,"12":-0.13639555871486664,"13":0.38155829906463623,"14":-0.14963944256305695,"15":-0.3706835210323334,"16":-0.054014187306165695,"17":-0.009129488840699196,"18":0.1218634843826294,"19":0.20103365182876587,"20":0.10454895347356796,"21":-0.1507977545261383,"22":0.04768211022019386,"23":0.16685128211975098,"24":-0.020488150417804718,"25":-0.009173978120088577,"26":0.19941189885139465,"27":0.11516151577234268,"28":0.032873522490262985,"29":-0.10004068911075592,"30":0.03376329317688942,"31":0.10434386879205704,"32":0.0748470276594162,"33":0.18342353403568268,"34":-0.2711123526096344,"35":-0.15017752349376678,"36":-0.13858535885810852,"37":0.18927550315856934,"38":-0.12664823234081268,"39":-0.179940328001976,"40":-0.17218509316444397,"41":-0.049903713166713715,"42":0.08903869241476059,"43":0.1073746532201767,"44":0.09415560215711594,"45":-0.07495871186256409,"46":-0.05508153885602951,"47":0.15438242256641388,"48":0.054670680314302444,"49":0.18252427875995636,"50":-0.27786436676979065,"51":-0.2163766324520111,"52":-0.07208425551652908,"53":0.28285524249076843,"54":-0.07524693757295609,"55":-0.3236508369445801,"56":-0.12496345490217209,"57":-0.1125090941786766,"58":0.18461251258850098,"59":0.1427561640739441,"60":0.11114049702882767,"61":-0.1756657063961029,"62":-0.0019089021952822804,"63":0.10386680066585541}},"inputBias":{"rows":8,"columns":1,"weights":{"0":0.34606724977493286,"1":0.5242562294006348,"2":0.8717336058616638,"3":0.8072649240493774,"4":-0.11927194148302078,"5":0.8426070809364319,"6":0.0028846205677837133,"7":0.8238246440887451}},"forgetMatrix":{"rows":8,"columns":8,"weights":{"0":-0.18361200392246246,"1":-0.13933685421943665,"2":-0.1542685478925705,"3":-0.17752327024936676,"4":-0.19273945689201355,"5":0.14140339195728302,"6":0.19817091524600983,"7":0.11716438084840775,"8":-0.0814187079668045,"9":-0.11709529161453247,"10":-0.055662088096141815,"11":-0.12189921736717224,"12":-0.0735774114727974,"13":0.24174576997756958,"14":0.10372975468635559,"15":0.07619345933198929,"16":0.06722243875265121,"17":0.13955990970134735,"18":0.13964970409870148,"19":0.1395816206932068,"20":-0.015574902296066284,"21":-0.10161325335502625,"22":0.014654521830379963,"23":-0.11077775806188583,"24":0.018809979781508446,"25":0.08214277774095535,"26":0.1174367144703865,"27":0.05463097244501114,"28":0.010326393879950047,"29":-0.06596007943153381,"30":0.08385656774044037,"31":-0.03842552378773689,"32":-0.16475588083267212,"33":-0.09192498028278351,"34":-0.07764055579900742,"35":-0.20392544567584991,"36":-0.06974911689758301,"37":0.2042747288942337,"38":0.14443697035312653,"39":0.1475307047367096,"40":-0.01808057352900505,"41":0.14955875277519226,"42":0.020107798278331757,"43":0.17694872617721558,"44":0.02390359900891781,"45":-0.0018214074661955237,"46":-0.032644882798194885,"47":-0.1486324816942215,"48":-0.08239823579788208,"49":-0.0927889347076416,"50":-0.14950601756572723,"51":-0.1580171138048172,"52":-0.09671306610107422,"53":0.17314112186431885,"54":0.07822012156248093,"55":0.1819751113653183,"56":0.02978408709168434,"57":0.19570600986480713,"58":-0.014300856739282608,"59":0.05650212988257408,"60":0.09050256013870239,"61":-0.11817389726638794,"62":-0.017678674310445786,"63":-0.1546170711517334}},"forgetHidden":{"rows":8,"columns":8,"weights":{"0":0.18061330914497375,"1":0.19195784628391266,"2":-0.18412943184375763,"3":-0.1589231938123703,"4":-0.17839714884757996,"5":0.13752049207687378,"6":-0.08934567868709564,"7":-0.2677834630012512,"8":0.1655595451593399,"9":0.07190050184726715,"10":-0.23479896783828735,"11":-0.16455523669719696,"12":-0.07051888108253479,"13":0.15767523646354675,"14":-0.16737867891788483,"15":-0.23869489133358002,"16":0.013885230757296085,"17":-0.11130744963884354,"18":0.141899973154068,"19":0.05781358852982521,"20":0.022739676758646965,"21":-0.07540389150381088,"22":0.05380314216017723,"23":0.11872737109661102,"24":-0.08968250453472137,"25":-0.029746869578957558,"26":0.14873692393302917,"27":0.04933746159076691,"28":0.07691116631031036,"29":-0.052422165870666504,"30":-0.00602918304502964,"31":0.0785343125462532,"32":0.0672919899225235,"33":0.09332084655761719,"34":-0.2092692106962204,"35":-0.10429956018924713,"36":-0.13228078186511993,"37":0.22440576553344727,"38":-0.18557052314281464,"39":-0.15274843573570251,"40":-0.03664416819810867,"41":0.0009751209290698171,"42":0.03924425318837166,"43":0.0858730897307396,"44":-0.005544634535908699,"45":-0.0900963544845581,"46":-0.04198288917541504,"47":-0.009870757348835468,"48":0.04725465551018715,"49":0.16448359191417694,"50":-0.24366560578346252,"51":-0.21056269109249115,"52":-0.08287004381418228,"53":0.18888333439826965,"54":-0.09086940437555313,"55":-0.1689717024564743,"56":-0.050218552350997925,"57":-0.04269379749894142,"58":0.039753980934619904,"59":0.07442492991685867,"60":-0.024790305644273758,"61":-0.14691150188446045,"62":0.05312513932585716,"63":0.07011894881725311}},"forgetBias":{"rows":8,"columns":1,"weights":{"0":0,"1":0,"2":0,"3":0,"4":0,"5":0,"6":0,"7":0}},"outputMatrix":{"rows":8,"columns":8,"weights":{"0":-0.1486968845129013,"1":-0.3012412190437317,"2":-0.13864803314208984,"3":-0.15769894421100616,"4":-0.12201711535453796,"5":0.29172125458717346,"6":0.19169627130031586,"7":0.15495096147060394,"8":-0.08554869890213013,"9":-0.18299822509288788,"10":-0.10977895557880402,"11":-0.19645655155181885,"12":-0.18800732493400574,"13":0.285183310508728,"14":0.1065940335392952,"15":0.215256929397583,"16":0.09075012058019638,"17":0.05759191885590553,"18":0.021851366385817528,"19":-0.037371497601270676,"20":0.11452057957649231,"21":-0.040520187467336655,"22":0.11202951520681381,"23":-0.08876708894968033,"24":0.051855817437171936,"25":0.024359459057450294,"26":-0.013790000230073929,"27":0.10062134265899658,"28":-0.015575327910482883,"29":-0.09455592930316925,"30":-0.013727005571126938,"31":-0.05544367805123329,"32":-0.15097443759441376,"33":-0.1697908639907837,"34":-0.062494222074747086,"35":-0.1909341812133789,"36":-0.15433424711227417,"37":0.19359907507896423,"38":0.12585893273353577,"39":0.12093015760183334,"40":0.06913502514362335,"41":0.06557893007993698,"42":0.008060486055910587,"43":0.06172507628798485,"44":0.0658138319849968,"45":-0.10361906886100769,"46":-0.00759870046749711,"47":-0.059547435492277145,"48":-0.16209517419338226,"49":-0.27234765887260437,"50":-0.07215404510498047,"51":-0.138136625289917,"52":-0.04147788882255554,"53":0.19153538346290588,"54":0.07982978224754333,"55":0.20898263156414032,"56":0.04709111154079437,"57":0.08991783857345581,"58":-0.01461951993405819,"59":0.15909121930599213,"60":0.039020027965307236,"61":-0.09240631759166718,"62":0.03157864883542061,"63":-0.024875307455658913}},"outputHidden":{"rows":8,"columns":8,"weights":{"0":0.14862945675849915,"1":0.0584331750869751,"2":-0.34331613779067993,"3":-0.24770404398441315,"4":-0.1346709430217743,"5":0.29478150606155396,"6":-0.053098708391189575,"7":-0.2984326183795929,"8":0.12687475979328156,"9":0.20818465948104858,"10":-0.3795711100101471,"11":-0.3638194501399994,"12":-0.0992930680513382,"13":0.4541313052177429,"14":-0.1294720470905304,"15":-0.3807767331600189,"16":-0.08865094184875488,"17":0.011303948238492012,"18":0.018042322248220444,"19":-0.049732182174921036,"20":0.09869438409805298,"21":-0.03600260987877846,"22":-0.01031527854502201,"23":-0.03007221408188343,"24":-0.04061095789074898,"25":0.06397997587919235,"26":0.07881905883550644,"27":0.06476320326328278,"28":0.08217798173427582,"29":-0.04655740037560463,"30":0.022126667201519012,"31":0.12445791065692902,"32":0.13731516897678375,"33":0.04663604125380516,"34":-0.21324633061885834,"35":-0.14484214782714844,"36":-0.14424626529216766,"37":0.262849360704422,"38":-0.09051940590143204,"39":-0.18730542063713074,"40":-0.0426330529153347,"41":-0.024973472580313683,"42":0.09407084435224533,"43":-0.0000030583273655793164,"44":0.06507977098226547,"45":0.022749247029423714,"46":0.08007634431123734,"47":-0.024660158902406693,"48":0.16819854080677032,"49":0.1505499631166458,"50":-0.21967855095863342,"51":-0.20793311297893524,"52":-0.15835614502429962,"53":0.3177168071269989,"54":-0.015658937394618988,"55":-0.30815812945365906,"56":-0.08170600980520248,"57":0.05920020863413811,"58":0.01212621945887804,"59":0.05044378340244293,"60":0.0878295749425888,"61":-0.08098355680704117,"62":0.06744387745857239,"63":0.0452880859375}},"outputBias":{"rows":8,"columns":1,"weights":{"0":0.34132131934165955,"1":0.5013418793678284,"2":0.9996412992477417,"3":0.9050678014755249,"4":-0.11944796144962311,"5":0.9392901659011841,"6":0.0019543003290891647,"7":0.9180929064750671}},"cellActivationMatrix":{"rows":8,"columns":8,"weights":{"0":0.1726350337266922,"1":-0.0320044569671154,"2":0.2788950204849243,"3":-0.04774212837219238,"4":0.2602264881134033,"5":0.04064473882317543,"6":-0.22568176686763763,"7":0.10737305134534836,"8":0.30366337299346924,"9":-0.021621480584144592,"10":0.21685414016246796,"11":0.016081200912594795,"12":0.29347649216651917,"13":0.11402731388807297,"14":-0.28146302700042725,"15":0.07604379951953888,"16":0.04908781498670578,"17":0.3457186222076416,"18":0.040672942996025085,"19":0.3493277430534363,"20":0.03968819975852966,"21":-0.2999737858772278,"22":-0.03655778989195824,"23":-0.2574825584888458,"24":0.008316132239997387,"25":0.3478541672229767,"26":-0.008839977905154228,"27":0.28774479031562805,"28":-0.0027159517630934715,"29":-0.3673270642757416,"30":-0.13161435723304749,"31":-0.357948362827301,"32":-0.21672241389751434,"33":-0.03502557799220085,"34":-0.31853020191192627,"35":0.016097139567136765,"36":-0.22709180414676666,"37":-0.08241049945354462,"38":0.2652856409549713,"39":0.04361044615507126,"40":-0.0359574593603611,"41":-0.33306634426116943,"42":0.08101902902126312,"43":-0.29464927315711975,"44":0.0023399905767291784,"45":0.29590365290641785,"46":0.05407876893877983,"47":0.3605407178401947,"48":-0.2341267615556717,"49":0.09425367414951324,"50":-0.21526437997817993,"51":-0.040194425731897354,"52":-0.2946591377258301,"53":0.019441261887550354,"54":0.17757263779640198,"55":0.03502131626009941,"56":0.04118740186095238,"57":0.32976439595222473,"58":-0.035977572202682495,"59":0.3136025071144104,"60":-0.015049469657242298,"61":-0.36773964762687683,"62":-0.044192634522914886,"63":-0.3240043520927429}},"cellActivationHidden":{"rows":8,"columns":8,"weights":{"0":-0.17826107144355774,"1":-0.14856719970703125,"2":0.014826405793428421,"3":0.0030062138102948666,"4":0.32426998019218445,"5":0.031108560040593147,"6":0.12555184960365295,"7":-0.019718635827302933,"8":-0.18475984036922455,"9":-0.1542193591594696,"10":0.09137483686208725,"11":-0.045305151492357254,"12":0.26577824354171753,"13":0.007165264338254929,"14":0.16896483302116394,"15":-0.06003374233841896,"16":-0.04710282012820244,"17":-0.06371384114027023,"18":0.2324407994747162,"19":0.28606560826301575,"20":-0.027570940554142,"21":-0.31622031331062317,"22":0.034527819603681564,"23":0.2771480977535248,"24":-0.12249282747507095,"25":-0.17111417651176453,"26":0.1544254720211029,"27":0.29311496019363403,"28":0.13508819043636322,"29":-0.20755895972251892,"30":0.03002167120575905,"31":0.2495408058166504,"32":0.09256388992071152,"33":0.10772266983985901,"34":-0.086294025182724,"35":-0.010336956940591335,"36":-0.19399382174015045,"37":0.07330527156591415,"38":-0.12209556251764297,"39":-0.021658843383193016,"40":0.13832220435142517,"41":0.07249876856803894,"42":-0.22549043595790863,"43":-0.30043765902519226,"44":-0.04619572311639786,"45":0.24313363432884216,"46":-0.011277098208665848,"47":-0.2744010388851166,"48":0.18038062751293182,"49":0.19293388724327087,"50":-0.07829806953668594,"51":-0.11914821714162827,"52":-0.1414395123720169,"53":-0.017370223999023438,"54":-0.10853756964206696,"55":-0.057743337005376816,"56":-0.19120626151561737,"57":-0.15424014627933502,"58":0.2966657876968384,"59":0.2442293018102646,"60":0.004023522604256868,"61":-0.26017263531684875,"62":0.06443750113248825,"63":0.19112995266914368}},"cellActivationBias":{"rows":8,"columns":1,"weights":{"0":-0.2659406363964081,"1":-0.36914774775505066,"2":0.6495559215545654,"3":0.6153918504714966,"4":-0.009268898516893387,"5":-0.6466640830039978,"6":-0.13098900020122528,"7":0.6393523812294006}}}],"outputConnector":{"rows":4,"columns":8,"weights":{"0":-0.028679005801677704,"1":-0.03369713947176933,"2":0.05555565655231476,"3":0.0348379984498024,"4":-0.032033346593379974,"5":0.02665551006793976,"6":0.0011849147267639637,"7":0.0198752973228693,"8":0.03736301511526108,"9":-0.06364165246486664,"10":0.007549645379185677,"11":0.033134087920188904,"12":0.009364350698888302,"13":-0.03252720087766647,"14":-0.03669852763414383,"15":-0.010678297840058804,"16":-0.019634725525975227,"17":-0.05709085986018181,"18":0.07439768314361572,"19":-0.04373032972216606,"20":0.004438946023583412,"21":-0.04091121628880501,"22":0.003957483917474747,"23":0.007588609587401152,"24":-0.03197110444307327,"25":0.01307578943669796,"26":0.058845650404691696,"27":-0.023727409541606903,"28":0.019861770793795586,"29":-0.039163462817668915,"30":-0.02530933916568756,"31":0.00986629631370306}},"output":{"rows":4,"columns":1,"weights":{"0":0.9433906078338623,"1":0.9584363698959351,"2":0.9477392435073853,"3":0.945357084274292}},"inputLookup":{"open":0,"high":1,"low":2,"close":3},"inputLookupLength":4,"outputLookup":{"open":0,"high":1,"low":2,"close":3},"outputLookupLength":4}